class Game {
  constructor(state="example") {
    this.state = state

    this.got_epoch = null
    this.got_batch = null
    this.weights = [[[]]]
  }

  load_best() {
    document.value.nn.set_params(BEST_PARAMS.layer_design, BEST_PARAMS.parameters)
  }

  set_default_settings() {
    let nn = document.value.nn
    nn.eta = 1
    nn.batch_size = 100
    nn.printing = false

    document.value.controller.settings_update_values()
  }

  get_weights(nn) {
    if (this.got_batch == nn.epoch.batch_nr && this.got_epoch == nn.epoch_nr) return

    this.weights = nn.get_weights()

    this.got_batch = nn.epoch.batch_nr
    this.got_epoch = nn.epoch_nr
  }
}

BEST_PARAMS = JSON.parse(`
{
  "layer_design": [
      784,
      16,
      10
  ],
  "parameters": [
      {},
      {
          "biases": [
              -0.07452351375265258,
              -0.14702534110603868,
              -0.5166447239312598,
              -1.1636739121687123,
              -0.5501827878880624,
              0.1347420002460613,
              0.14281422623229872,
              0.8454055942803573,
              0.9608845209122117,
              -0.017277196120064345,
              -0.3236756762039262,
              -0.5504967369581394,
              0.03369399549899912,
              1.5531318533299237,
              -0.7018845793606255,
              -1.2197554643203574
          ],
          "weights": [
              [
                  0.010655015015358482,
                  0.20527618708865725,
                  -0.18269614547082935,
                  0.16719848638534796,
                  -0.17723734241740363,
                  0.15518195919715616,
                  -0.015502657241669437,
                  0.03836733958514571,
                  -0.06264259192374066,
                  -0.08418449185041466,
                  -0.11981312705089897,
                  -0.12820767422679769,
                  0.10267842240213756,
                  0.08596129285316378,
                  -0.0017266612628402,
                  -0.07594180113161511,
                  0.12194660873160457,
                  -0.15708704085842085,
                  -0.09758312256202151,
                  0.08952527034641877,
                  -0.15521509495010744,
                  -0.11041195081475352,
                  0.23463657867774712,
                  -0.1093122383297398,
                  0.028254821515711126,
                  0.14782542311965075,
                  -0.12154257201688279,
                  -0.21066989789530044,
                  0.031073382603425292,
                  -0.09482003266000705,
                  -0.14567882056637538,
                  -0.01003748160448037,
                  -0.23363904472571084,
                  -0.11557983084761603,
                  -0.01853065327867809,
                  0.14155849718344526,
                  -0.1933571855720084,
                  -0.09191202252512115,
                  -0.05460469877033249,
                  0.183776184962468,
                  0.11621719661995694,
                  0.020063274953948045,
                  0.049436023527754405,
                  -0.10780290650188931,
                  -0.2194880785283996,
                  0.039421951942746954,
                  -0.11875227536176908,
                  -0.08042943711321492,
                  -0.23043435445453608,
                  0.24262767296967097,
                  0.091216810180173,
                  -0.08716279843684883,
                  0.05481203821122327,
                  -0.08240588808997307,
                  0.23016758170554907,
                  0.04384584501237432,
                  -0.09445982146215315,
                  -0.04331054165652526,
                  -0.11422828493047332,
                  -0.04376118338543139,
                  -0.10011132752794415,
                  0.24496000263496595,
                  -0.21498161608981403,
                  0.16936914396698624,
                  0.13386141719411027,
                  -0.06859848989651067,
                  0.0013634959551139176,
                  -0.05925190469969843,
                  0.08794633043681352,
                  0.004149076932177004,
                  -0.12266863044348932,
                  -0.03214610407039598,
                  0.02751533255571938,
                  0.08965268921654627,
                  0.09974218233942864,
                  -0.00991558804070628,
                  -0.12239478156973034,
                  0.19131529248323084,
                  0.0881164817733397,
                  0.10918821608695922,
                  -0.0792213228597596,
                  -0.10657427616593439,
                  -0.22730129242514852,
                  -0.013957903965142182,
                  0.026535272325041714,
                  0.07805134792093205,
                  -0.029156663584064768,
                  -0.025190600496169245,
                  0.23855343451013056,
                  -0.030743730876930775,
                  -0.1653554433215701,
                  -0.25358575522723187,
                  -0.2872857557590065,
                  -0.2586039006670314,
                  -0.15990343499649665,
                  -0.2860966761642473,
                  -0.2837268445339554,
                  -0.23528179726758053,
                  -0.24861513493548995,
                  -0.323312855694321,
                  -0.14629062683263896,
                  -0.2895016698581323,
                  0.008348377628739275,
                  -0.048918905145037675,
                  0.03067784712958365,
                  -0.1169586244083168,
                  0.06286186806747468,
                  -0.12494191266711227,
                  0.0555320141071227,
                  -0.20654355769930063,
                  -0.25824209630070644,
                  -0.006360030019793905,
                  -0.24445107334210137,
                  -0.06808047782122961,
                  -0.17715076707993077,
                  0.19305677186299244,
                  -0.19177823719783577,
                  -0.032769717282722044,
                  -0.01950560398397419,
                  -0.05886379150001744,
                  -0.15536211322075216,
                  -0.2140614528328563,
                  -0.2953589732641615,
                  -0.1215100185211299,
                  0.10524319484913822,
                  -0.03002681638443806,
                  0.0785127850780391,
                  -0.004936863408569396,
                  -0.343274354804463,
                  -0.28527364178434184,
                  0.0794254340904146,
                  0.09556689690299383,
                  -0.2822726193912912,
                  0.17731797949226577,
                  0.03778628041780391,
                  0.11203401394166354,
                  0.23397869768772855,
                  -0.0171614265554784,
                  0.20744019384543838,
                  0.2205932918928695,
                  0.12835543472547895,
                  -0.09059403034875246,
                  0.061897709182614696,
                  0.01132492942531091,
                  0.05314371209524216,
                  -0.013135276192948195,
                  0.06788899568941326,
                  0.058396621545575005,
                  -0.01972754330437237,
                  -0.05823333087253816,
                  -0.011179867130451788,
                  0.12669689525205308,
                  -0.015833625517332108,
                  -0.07341231130086456,
                  -0.259244447853034,
                  -0.018095203915271228,
                  0.21623713577511,
                  -0.07896162094225037,
                  -0.1564574788826749,
                  -0.3146266894417661,
                  0.19224644808112484,
                  -0.09630188529232389,
                  0.08488732640132195,
                  0.5460961618137967,
                  0.3787132307836128,
                  0.21964875607322537,
                  -0.07337519235976243,
                  0.13115264539925242,
                  0.05036147807165858,
                  0.019472579189022454,
                  0.23439835116767224,
                  0.15491152821903,
                  -0.13878944194343207,
                  0.26364080951001667,
                  0.3138771528951245,
                  -0.10303842087736732,
                  0.010380749852499179,
                  0.23939935301565432,
                  -0.07922292699950134,
                  0.0000014925293955834063,
                  0.0569233153543067,
                  0.2176739252424032,
                  0.12336642032217861,
                  -0.2529326323882063,
                  -0.2928573963616407,
                  -0.4266988715702696,
                  -0.15451247111045885,
                  -0.26146450298074314,
                  0.1239777423983774,
                  -0.03134604727673505,
                  0.26559032396564203,
                  0.5683410527198397,
                  0.6316895283184066,
                  0.44772423425630165,
                  0.14106547952643025,
                  0.21845298659934,
                  0.13132157940116196,
                  -0.10212107842344105,
                  0.17588647125076473,
                  0.1918974241449825,
                  0.11511219336582114,
                  -0.04933676965059584,
                  -0.03930166205005986,
                  0.10660872353876368,
                  0.14860025917298322,
                  0.040185934973797785,
                  -0.20936481797483927,
                  0.09053768033906356,
                  -0.17298719162915951,
                  0.08452165587279752,
                  -0.24333777142449653,
                  -0.23913364093541498,
                  -0.04575334757432548,
                  0.05701041731394686,
                  -0.09025963572610014,
                  -0.31517381515009374,
                  0.11748959448649049,
                  0.08686833781173682,
                  -0.14823614791315057,
                  0.6025307274978917,
                  0.30307200302029835,
                  0.5704046943677447,
                  -0.05880459843096499,
                  -0.03853522008694482,
                  0.11736684518887552,
                  0.15265391040808118,
                  0.003698753630799952,
                  0.22556923878708693,
                  0.2930022018847328,
                  0.00446961453510804,
                  0.21250332537877087,
                  -0.011386015810553974,
                  0.06755493015167142,
                  -0.18494134686550576,
                  0.01150983462902352,
                  0.04891279447363543,
                  0.08587726176451099,
                  -0.04640600511753312,
                  -0.13012603938826478,
                  -0.47617484689020595,
                  -0.29915212659265655,
                  -0.3522259945095792,
                  0.07936434779291549,
                  0.10247865491979312,
                  0.016256298695396524,
                  0.051869943861389683,
                  0.5004395602457476,
                  0.32088486936007227,
                  0.290919204071565,
                  0.49859978386996606,
                  0.1040864086357683,
                  -0.23177946116818818,
                  -0.22826959596073634,
                  0.13871989575516475,
                  -0.14101234342626592,
                  -0.14498428032265617,
                  -0.08565534925699264,
                  0.10404548467796756,
                  0.49340610818658903,
                  0.057616421500115964,
                  0.1025181463555733,
                  -0.09722472996324033,
                  -0.24988122944724714,
                  0.1664746098964219,
                  -0.30797378005134035,
                  -0.1536298645658054,
                  -0.3637329476939462,
                  -0.15226355780970977,
                  -0.20452832884397132,
                  -0.026649226400019505,
                  0.10861482363357786,
                  0.06850520978196689,
                  0.2845104683632353,
                  0.19721471534834026,
                  0.20754276238796565,
                  0.308248585162517,
                  0.3735337384456432,
                  0.17334645702906765,
                  0.3066433760037176,
                  0.12708224614943514,
                  -0.0991788172296931,
                  -0.21187207058031465,
                  0.0814749825480976,
                  0.1922974769264525,
                  0.09269915336594949,
                  0.0683962038579269,
                  0.2620522317022016,
                  0.4532100106776949,
                  0.41613341935868264,
                  0.2478387168768125,
                  0.09330272972248417,
                  0.12372142601057497,
                  0.2227541115888095,
                  0.18092361735380694,
                  0.1655949751189191,
                  -0.09365492122594807,
                  0.12273204865119497,
                  0.09820393049359032,
                  -0.1627853286093189,
                  -0.09434216772303317,
                  0.2805809362415286,
                  0.27631297388150355,
                  0.22407744993887477,
                  0.008545303460493073,
                  -0.17232316155119043,
                  0.4123864027978188,
                  -0.10489951335481715,
                  0.2125964676471196,
                  -0.1287750459361623,
                  -0.10377412269626105,
                  0.20911187646419963,
                  0.13417377050581467,
                  -0.11112761300326403,
                  0.31159262140989186,
                  -0.08595535538612202,
                  0.29176375076833155,
                  0.21195887135554392,
                  0.07627310216766249,
                  0.41808583626979623,
                  0.1357203049062525,
                  0.52066527784192,
                  0.7446196533991518,
                  0.509162547803688,
                  0.4096516228919692,
                  0.3827880248365463,
                  0.07415687998607039,
                  0.22305231372752754,
                  0.15554327786427832,
                  -0.041471329817851774,
                  -0.21696595929439497,
                  -0.25743494242327786,
                  -0.448770958771671,
                  -0.1105885630352658,
                  -0.06997412808649417,
                  -0.03175541301078739,
                  0.19395431408870056,
                  -0.18319007030369805,
                  0.15215024643867772,
                  -0.2526528469742359,
                  0.1623659329791916,
                  0.02876071386008991,
                  0.0378100425250838,
                  0.1390729721917684,
                  -0.04685802670464006,
                  0.15758491816518413,
                  0.2606829319958986,
                  0.1131302549481073,
                  0.18526706692787479,
                  0.299821187517287,
                  0.4887397003616713,
                  0.6957871628608681,
                  0.25803320521679424,
                  0.42672427995376566,
                  0.3030853332813664,
                  0.3703171862131165,
                  0.008023277586459099,
                  -0.13172470893934032,
                  -0.6090530473867466,
                  -0.21925632895985211,
                  -0.5601205984738244,
                  -0.5990784096787355,
                  -0.09296745545447911,
                  -0.1728414487971929,
                  -0.007418229219874814,
                  0.24985055067206474,
                  0.1467140383338209,
                  -0.07279342453141938,
                  -0.05137168356059363,
                  -0.007989256259421661,
                  -0.17228938216848,
                  0.018431812716564456,
                  0.037828819413414476,
                  0.4223570330219072,
                  0.488821727460115,
                  -0.04092229125100972,
                  -0.05238467216405751,
                  0.29854603177783295,
                  -0.052451913750894814,
                  0.3088935728156058,
                  0.2430606885596699,
                  0.1377801595490958,
                  0.37508789014594396,
                  0.1925006364571581,
                  -0.014500084316106427,
                  -0.09012101202953747,
                  -0.5217311270012196,
                  -0.4263186070897613,
                  -0.46537725602012625,
                  -0.3652691339683558,
                  0.0031409084255355347,
                  -0.12577086662403683,
                  0.08514808084510411,
                  0.025021127476163325,
                  -0.12448370842126488,
                  0.11786492719905546,
                  -0.11208604588896821,
                  -0.01286480843625116,
                  0.0038443510482185886,
                  -0.13515802221896897,
                  -0.151652618962977,
                  -0.22008950482485398,
                  0.048433271008148454,
                  -0.255729654438654,
                  -0.07337316947771956,
                  0.19181326558633294,
                  0.5908642450583137,
                  0.04247678746279675,
                  0.13442197457801128,
                  0.20187945330246437,
                  0.6515224325610954,
                  0.1879241235587656,
                  -0.26922726718779194,
                  -0.5021936421154612,
                  -0.1859286387330641,
                  -0.24723552552574252,
                  -0.0330234021037,
                  -0.32943865372083975,
                  -0.06291302129418874,
                  -0.1275031569297823,
                  -0.13889993544964188,
                  -0.20432710769588772,
                  -0.21911990168722942,
                  0.10825947048875302,
                  0.1925473929562607,
                  -0.07519549059934565,
                  0.006405633279462511,
                  -0.1334796303939691,
                  -0.2823982922401356,
                  -0.3230378651383745,
                  -0.11350486294922602,
                  -0.10857032479220335,
                  0.020573598477470367,
                  0.15353300238745882,
                  0.3424055416826183,
                  -0.1535155442935672,
                  0.005079690716684143,
                  0.0726807025315763,
                  0.15896198894323454,
                  -0.19952250624230095,
                  0.11682398939608901,
                  0.031240159915541438,
                  0.011090205416938396,
                  -0.02467163385238216,
                  0.1683510914113423,
                  -0.010406681027668533,
                  -0.2610445019634906,
                  0.031745677767245364,
                  -0.05705676514982366,
                  0.015282530465593025,
                  -0.1666082601418165,
                  0.17482878438461907,
                  -0.06706430465493579,
                  0.07834206823774054,
                  -0.25382638058651624,
                  -0.15299171601977454,
                  -0.33551234266568086,
                  -0.13161798779305467,
                  -0.25256127783344,
                  -0.19341017039873717,
                  -0.11901354738657034,
                  0.3229758877031431,
                  0.08537034550441037,
                  -0.058371983694556005,
                  -0.1454411303241419,
                  -0.1146792901677029,
                  0.13709223567804837,
                  0.08607021813725285,
                  0.2077330933878628,
                  -0.1078071704647194,
                  -0.032367297770448514,
                  -0.0920270102848821,
                  -0.0814291101429198,
                  0.10753937126566072,
                  -0.302926369796468,
                  -0.082489000202712,
                  -0.2400823621183713,
                  -0.09689097374241606,
                  0.16582506650310627,
                  0.019548327384881294,
                  0.26634892087050605,
                  0.06820709799747447,
                  -0.36827007011614066,
                  -0.2992374366634791,
                  -0.5678390652116639,
                  -0.3212619458140597,
                  -0.30082511497173225,
                  -0.5790208219389061,
                  -0.4653515655817475,
                  -0.128558771253089,
                  0.03448170021805287,
                  0.14570727661229843,
                  -0.030735320029168064,
                  0.21193358122485362,
                  0.08999821504496681,
                  -0.2771411229860837,
                  0.03137357829506953,
                  -0.32286503440638664,
                  0.009081172942180624,
                  -0.22415059124502476,
                  0.2212821367769845,
                  0.07878880518406603,
                  -0.32855638515845553,
                  0.007073146266950978,
                  0.0029171934185826614,
                  0.001985464954539884,
                  -0.08835763350464478,
                  0.19758745844696618,
                  0.3267097663767743,
                  -0.170418925429699,
                  -0.42515762110413574,
                  -0.01724140562616413,
                  -0.052753322835576516,
                  0.011044006065545927,
                  -0.20974024769686322,
                  -0.40035556925438176,
                  -0.5967632724020981,
                  -0.796195174352527,
                  -0.31018905703457544,
                  0.008678699769459685,
                  0.18720858962346945,
                  0.32128521743024685,
                  0.02083289021173117,
                  0.059389524451148416,
                  -0.012351290341360507,
                  0.06133560746425639,
                  -0.31722178411363655,
                  -0.02561736270189488,
                  0.0921146758271462,
                  -0.44603087835669913,
                  -0.29547280262154785,
                  0.014780453732552098,
                  -0.16281098330583602,
                  -0.08543586993537544,
                  -0.11555784906049704,
                  0.19481034290951574,
                  0.03838903827508012,
                  0.01947127945546049,
                  -0.10066145632621303,
                  0.14200545179804822,
                  0.1870348033263356,
                  -0.1353689479821694,
                  -0.2729827671068636,
                  -0.23645804804461715,
                  -0.6379169864414022,
                  -0.15978653490711492,
                  -0.607226046332028,
                  -0.05056611673011531,
                  0.3718210797169541,
                  0.08677889050610132,
                  0.03638675909951322,
                  0.02286072357698389,
                  0.30019929271794893,
                  -0.17759707793120835,
                  0.11004122719439613,
                  -0.14635993739664097,
                  -0.026771217498694485,
                  -0.019411003886213293,
                  -0.3612018342458002,
                  -0.02495494026454126,
                  0.2374239963959672,
                  0.2173336247128448,
                  0.06448730184380015,
                  -0.0972110075443224,
                  0.2671318620802427,
                  0.13600777403478098,
                  0.15548513616406812,
                  0.35024750847659036,
                  0.22841236534494758,
                  0.19994459398335188,
                  0.19993322564246283,
                  -0.272613233368893,
                  -0.47954840899882,
                  -0.23444566203455958,
                  -0.49302256220030616,
                  0.04776759582977856,
                  0.1767348690851407,
                  0.3472035468462856,
                  0.26631721655120316,
                  0.0725196549028882,
                  0.0944083151093541,
                  -0.0855527943699298,
                  -0.03977342953219965,
                  -0.12015403236324243,
                  -0.16139976691052338,
                  -0.28290418575058596,
                  -0.273319668331559,
                  0.09357128242473034,
                  0.06099111078121777,
                  -0.007306495744463071,
                  -0.229517574416624,
                  0.24246758540839397,
                  0.010412058696257241,
                  0.01475865915137899,
                  0.19404058632052434,
                  0.16891528781790582,
                  0.04611493981827011,
                  0.0352861135524052,
                  -0.019429559597008657,
                  -0.19914777018181076,
                  -0.0713459988173105,
                  -0.5736056828741593,
                  -0.2994160681572862,
                  0.0008490351052082628,
                  0.2400160273271612,
                  0.5095412096824282,
                  0.14449583033992305,
                  -0.3003311785902518,
                  0.005816970855340223,
                  -0.2693791135955678,
                  -0.33428504447194085,
                  -0.32972392871016204,
                  -0.12036833733167879,
                  -0.4303115752482408,
                  0.18283655322828415,
                  -0.1864169130169236,
                  0.04118469121032755,
                  0.23293574215159452,
                  -0.10615350371097189,
                  0.1491693143618511,
                  0.19665473596934852,
                  -0.031201956606235624,
                  -0.23502507720315713,
                  -0.13403047865893664,
                  -0.1837699390006133,
                  -0.3341906474606954,
                  -0.2690108874489959,
                  0.0077340854855055385,
                  0.03877652052062257,
                  -0.24340839482610158,
                  0.08477107643187554,
                  0.26275976457770905,
                  0.13572557631191032,
                  -0.06624430733528858,
                  0.28142988293440896,
                  0.2322202772655967,
                  -0.16608360791802326,
                  -0.40558455509893854,
                  -0.14258473255629459,
                  -0.08162901169294895,
                  -0.14021536907669901,
                  0.05221202294863029,
                  0.1904561048776275,
                  0.1627853340922107,
                  0.0994962591053483,
                  -0.13776645952332622,
                  -0.17009576330144272,
                  -0.10860083751724812,
                  -0.008519329982088446,
                  0.022192498466332946,
                  0.19314384403156815,
                  -0.11337669663907013,
                  -0.1504556574066715,
                  0.07229742060615527,
                  -0.2199525422794376,
                  -0.033541055123515115,
                  -0.342495668300869,
                  -0.22471786027060056,
                  -0.02786355845207899,
                  -0.15174286497034783,
                  0.3051720769344767,
                  0.30712891209913934,
                  0.3825716385422632,
                  0.46101510334658147,
                  -0.18185038855869134,
                  0.10217375749343978,
                  -0.3132703361205574,
                  -0.2440315242455166,
                  0.0001993713433792825,
                  -0.04907577019697077,
                  -0.22667608007976703,
                  -0.22536040460914147,
                  -0.2496180519022101,
                  0.2163484630504262,
                  0.10489877202969988,
                  0.1523610022159757,
                  -0.21351485175980717,
                  0.1936395934920906,
                  -0.11615248486903305,
                  0.26371891710391404,
                  -0.1069855550041859,
                  0.0007828374185014149,
                  -0.0265308647191155,
                  -0.04821562662408815,
                  0.16197720741615673,
                  -0.31916040695310033,
                  -0.03815446998831894,
                  0.015249703075184964,
                  0.15718873422518717,
                  0.2665597292247376,
                  0.35190748780773534,
                  0.12761886732781724,
                  0.19081949862938544,
                  0.05873682084601087,
                  -0.01318418340563374,
                  -0.09797576902134775,
                  0.10293675309959686,
                  -0.11196300213532037,
                  0.09243367567443653,
                  0.1916020057491039,
                  0.0630449055272354,
                  0.004506395410129094,
                  0.24732511412795655,
                  0.23616368407021185,
                  -0.22729097333567383,
                  0.12054211472463308,
                  0.13448227731171192,
                  -0.13660810013830874,
                  0.24708915120941252,
                  -0.09836804859642405,
                  0.1732631844351975,
                  0.04157375420829278,
                  0.06564149190600196,
                  0.22619747423930112,
                  0.10678703357127398,
                  0.2987463778362095,
                  0.15555304545796106,
                  0.27613182140823894,
                  0.16367467567789057,
                  -0.04406194051378469,
                  0.15947335623297804,
                  -0.21418375713438098,
                  -0.22641874817705646,
                  -0.24693228019890628,
                  0.043622358546316714,
                  -0.1771367609992655,
                  0.10866169818462323,
                  0.04947059802817732,
                  -0.22332530278224771,
                  -0.10053265856517146,
                  -0.09446245093200134,
                  -0.23724436628658852,
                  0.02851133228646685,
                  -0.10919049683889537,
                  -0.2183654903050612,
                  0.03973558421615354,
                  -0.01908835878582934,
                  0.05553223959792516,
                  -0.13135478562755318,
                  -0.15519157881414372,
                  -0.25046057507451563,
                  -0.24937375096829686,
                  -0.1303252848906453,
                  -0.08494967203753674,
                  -0.0743722381881335,
                  0.07019913465796926,
                  0.14176290377195133,
                  -0.16338084242584258,
                  -0.023482790814141282,
                  0.038044801607865074,
                  0.21970453292008757,
                  0.17311495434542884,
                  -0.1592478978593697,
                  -0.10897679900409885,
                  0.16323603403554657,
                  -0.04286337232450632,
                  -0.1001997615264868,
                  -0.1507435393441504,
                  0.1484800992534815,
                  -0.0031503139259674295,
                  -0.16461845631240923,
                  0.18221069723587216,
                  -0.21799263377136183,
                  -0.018656053494831765,
                  -0.26412329711913324,
                  -0.19264627276652424,
                  0.16506988488005295,
                  -0.08976353394150458,
                  0.11781223607385458,
                  -0.06308637004803049,
                  -0.10253782906031177,
                  -0.00031317898008965337,
                  -0.1873735529806439,
                  0.1077462132520225,
                  -0.07055793599789711,
                  0.0065920527020350604,
                  -0.09981387270218171,
                  0.11660062942568561,
                  -0.19406159158409664,
                  -0.23882769376957522,
                  -0.22749077380690888,
                  0.02623948484152716,
                  0.10638196401122002,
                  -0.1327568872078232,
                  0.18254353642159749
              ],
              [
                  -0.1979913125237408,
                  -0.20279461890678252,
                  -0.11365453729672659,
                  0.055550083886822366,
                  0.003230473049474547,
                  0.07881061489723806,
                  -0.06597754550731638,
                  -0.041396223780297725,
                  0.21512245266302443,
                  -0.21592512223959692,
                  0.03610482373454682,
                  0.11852063229972798,
                  0.03833826877513539,
                  0.24155768383483997,
                  0.2368057475097005,
                  0.17169418590978391,
                  0.21367143165056757,
                  0.19365613760224276,
                  -0.22079181654695945,
                  0.11213990038284982,
                  -0.1352805166653812,
                  0.034095112847632114,
                  0.027616926916332885,
                  0.11509774013505825,
                  0.23295871995980655,
                  -0.23771629950863127,
                  -0.17239798076538826,
                  0.1338580188970795,
                  -0.025587882420783692,
                  -0.13929333939269084,
                  0.18926660220224623,
                  0.1922832863016244,
                  0.2355366272245779,
                  0.2418493788728917,
                  0.23874491301027712,
                  0.023905212216197968,
                  0.06736430987015103,
                  -0.10355888470205622,
                  -0.19767177368369399,
                  -0.036640159000910534,
                  -0.019208600077885413,
                  -0.15435814034945342,
                  0.1063089067725787,
                  0.18261485795528135,
                  0.0031845137218102235,
                  -0.013146846879091382,
                  0.13745197659488095,
                  -0.11468922584664229,
                  -0.2485133824860202,
                  -0.10739499084300538,
                  0.20523019322593414,
                  -0.18305242080574516,
                  -0.17319584446874314,
                  0.020662161006372082,
                  -0.011677393744457532,
                  0.0595997232184764,
                  0.19386357249898756,
                  0.24833551116548958,
                  -0.23122012103496148,
                  0.03891913635750027,
                  0.1275505889841938,
                  0.1549127420643625,
                  -0.14207517997138014,
                  -0.11439419162730274,
                  -0.09534272407205245,
                  -0.2510403674306865,
                  -0.3434024796874864,
                  -0.28694555516916503,
                  -0.37772743709781276,
                  -0.12685986456814968,
                  -0.2698573472110205,
                  0.037705632121545006,
                  -0.2573863758405798,
                  -0.1940163607495091,
                  -0.315925033192172,
                  0.14604161664256146,
                  0.04587930510196987,
                  0.12141033678532115,
                  -0.1563055546639573,
                  -0.0011133930231846105,
                  -0.008487112805976742,
                  -0.11788399579260744,
                  0.21985740620391558,
                  -0.15954610176096096,
                  0.15070415008054294,
                  0.1101342651573568,
                  -0.0026556225700103964,
                  -0.130848012236598,
                  -0.15254143301472892,
                  -0.14482344814322923,
                  -0.013103821438552184,
                  -0.09971476441383166,
                  -0.019306132760379093,
                  -0.30313867540501716,
                  -0.28677256499362264,
                  -0.20385936595825876,
                  -0.3729820226805093,
                  -0.46575469543315445,
                  -0.4733130117635412,
                  -0.05095439790055678,
                  0.007015147878134045,
                  -0.4136437709570856,
                  0.14917675248179593,
                  -0.007289204061554441,
                  -0.12756625565558075,
                  -0.16777737137630072,
                  0.1668957376821297,
                  -0.1868715632850136,
                  -0.053953856184933674,
                  0.03205123457700835,
                  -0.06482043473458746,
                  -0.03373226029598242,
                  -0.06439689848830055,
                  -0.23230098357977913,
                  -0.1942124881733896,
                  -0.2156725873827338,
                  0.24623898716030976,
                  0.04549322641555007,
                  -0.17477799628260893,
                  -0.27091457312582007,
                  -0.322964941487779,
                  -0.4447044287376797,
                  -0.4459295812210425,
                  -0.024056814061674783,
                  -0.2355847814962326,
                  -0.37595213966953966,
                  -0.06535621501399914,
                  -0.18851535212204387,
                  0.19003557592285814,
                  -0.06023109346854105,
                  0.02764503940712273,
                  -0.23439019274186595,
                  -0.09197560157098991,
                  -0.027487152803149003,
                  0.376338946237773,
                  -0.0863577977450549,
                  0.18361296811271696,
                  -0.09804611383167673,
                  0.15040097725705692,
                  -0.20102142426689706,
                  -0.24185473672147162,
                  0.1548988710675805,
                  -0.14458762554270804,
                  -0.047473294435856794,
                  -0.09989488537357087,
                  0.02171575155215806,
                  -0.03709559629858294,
                  -0.18712425488554027,
                  -0.4888002298241351,
                  -0.06670682253357572,
                  -0.5773760029565803,
                  -0.012454255922338427,
                  0.04041048705681095,
                  0.3129237913426883,
                  -0.07939768809896068,
                  -0.04191303382945068,
                  -0.4251614089621353,
                  -0.031015300071141012,
                  -0.11631904342482909,
                  -0.1108723622005936,
                  0.14830140938784095,
                  -0.024804027361080744,
                  0.015297180043776058,
                  -0.010770602781463209,
                  -0.03504520596813616,
                  0.07815314874818127,
                  0.2546195961615685,
                  0.04537198196485699,
                  -0.07244293527680645,
                  0.24345703397964147,
                  0.07309706437518418,
                  -0.14136687019809166,
                  0.09295470088600873,
                  -0.2757372307811597,
                  -0.10963305190844874,
                  -0.09554511200314032,
                  0.0001225484884470413,
                  -0.061799283913351384,
                  -0.3260831899557842,
                  -0.023201601121705263,
                  0.1341996686829761,
                  0.10012322603771832,
                  -0.22168464925959372,
                  -0.1136855315114244,
                  -0.07952683388887903,
                  -0.03569253054706902,
                  -0.08156935301223996,
                  -0.019974937579450215,
                  -0.27201152384638355,
                  -0.08994345766635826,
                  0.4074147253681935,
                  0.38509520725891705,
                  0.3176266113804055,
                  -0.0551408126865221,
                  0.10753659513719702,
                  0.13300354293633135,
                  -0.13479308487155595,
                  0.23749782041237005,
                  0.057662491928644234,
                  -0.072722337107953,
                  0.11596615107584869,
                  0.1675460218712443,
                  -0.10313057164867703,
                  0.16214090402428227,
                  0.06784621024496688,
                  -0.02477077410003502,
                  0.22058898666835292,
                  0.502562551466657,
                  0.1740481297013526,
                  0.05853953514690922,
                  -0.08769100252924102,
                  -0.011079175582796223,
                  0.25265754009852726,
                  0.3911381299191216,
                  0.7639170735531703,
                  -0.013738225455030648,
                  0.15772055921952302,
                  0.11493710860825013,
                  0.19256845338670808,
                  0.4734039268257241,
                  0.30792976937081123,
                  0.44232052982187503,
                  -0.23408228324775818,
                  -0.020821715363758833,
                  -0.2006020565249329,
                  -0.19083900313213437,
                  -0.10059419538182318,
                  -0.12567827291800582,
                  -0.1689932276244808,
                  -0.10223652659128629,
                  0.05170468620941504,
                  0.33183185618324273,
                  -0.07833505196726318,
                  0.003250616508498045,
                  0.08218760446930683,
                  0.04293655997928223,
                  0.04819528666436883,
                  0.14300737079659984,
                  -0.006777373213408494,
                  0.12336841182093988,
                  0.25652535869223864,
                  0.6413531278797593,
                  0.38168323653198594,
                  0.6161912261323004,
                  0.5604146403015338,
                  0.12425097819016725,
                  0.6890324529297844,
                  0.7052942497906897,
                  0.42623456950108135,
                  0.34254023854988774,
                  -0.10330537333547103,
                  0.24074870496112719,
                  0.15418974864212992,
                  0.19272988121179457,
                  0.1984269853026949,
                  -0.04034791613258335,
                  0.014975543682877243,
                  -0.18360275120414135,
                  -0.06137241297642378,
                  0.053040429748015684,
                  -0.21255060717212526,
                  0.03956687865827664,
                  0.40728138831850885,
                  0.5585512393915567,
                  0.5293274631448318,
                  0.2648442505904713,
                  -0.27434859686220325,
                  0.1057422414416746,
                  -0.0986560774308502,
                  0.2220592806278212,
                  0.09096218050435897,
                  0.33936838831749166,
                  0.3260952079641761,
                  0.3879053077058303,
                  0.2673370775686102,
                  0.4355750803336952,
                  0.26363789141442134,
                  0.4085780447162682,
                  -0.1632642246008815,
                  -0.21268864640645138,
                  0.01812005078504979,
                  -0.1569763087273425,
                  0.13381603552823687,
                  0.3033612038976861,
                  0.30003172605474293,
                  0.15731525858973613,
                  0.21387993128206814,
                  0.25240557184866824,
                  -0.06109205605452394,
                  0.25512968557706084,
                  0.33409829650659517,
                  0.4105272755062654,
                  0.6110036445455339,
                  0.4533251229901311,
                  -0.09050259865035996,
                  -0.012987013944738198,
                  0.18428761135041472,
                  0.12865973819937995,
                  0.10872864934505805,
                  0.10467928763976708,
                  0.0920306517081018,
                  0.29470985617409495,
                  0.17015177927411881,
                  0.42259202606196367,
                  0.1904848004361708,
                  0.048129314814084286,
                  0.011256045684341135,
                  -0.063504266523289,
                  -0.009505495847399362,
                  0.1897222972101583,
                  -0.025535244630885832,
                  0.19476681182185324,
                  0.06156641255130674,
                  0.06937970519713225,
                  0.5275416113228155,
                  0.7208646741599581,
                  0.7524368488156963,
                  0.25147944438165765,
                  0.31899167152857977,
                  0.3780802834904966,
                  0.47456610550310946,
                  0.42802435541733497,
                  -0.3692537451620275,
                  0.0991501993641682,
                  0.24155510172802758,
                  0.4519633950366321,
                  0.3411297581014872,
                  -0.1995234841288044,
                  -0.09423605668231977,
                  -0.04491210665196965,
                  -0.012605637908577123,
                  0.15502444250576738,
                  0.11343092357889081,
                  0.18623247700032708,
                  -0.04876489807091807,
                  -0.14829779013792196,
                  -0.1250511150666921,
                  -0.16749557487152386,
                  -0.116364829873025,
                  0.052745952057056594,
                  -0.04500338722745032,
                  0.6139331463045915,
                  0.5910096546517515,
                  0.8089988834633476,
                  0.4074648960087,
                  0.25626221513115693,
                  0.21869864890168755,
                  -0.0041637419815623465,
                  0.4399326077971286,
                  0.3393135831914606,
                  -0.5580859331905991,
                  0.040689482904686894,
                  0.017879506726564007,
                  0.1733636290196337,
                  -0.2068699163768702,
                  -0.09973795678889294,
                  0.19299310800024608,
                  -0.01685089818478659,
                  -0.06459543920032919,
                  -0.10671184156131955,
                  0.005947593513257958,
                  -0.20248667541516022,
                  0.22681200094355047,
                  -0.14940006499239064,
                  -0.24375159948867886,
                  0.2344367118636335,
                  -0.23200999945985273,
                  0.05789025673162887,
                  0.0746255705862897,
                  0.4929543509161753,
                  0.6186796455282147,
                  0.14834275678016068,
                  0.3795311153927663,
                  0.2214112808145485,
                  -0.04923082093821166,
                  0.13233717177174012,
                  -0.189575644275291,
                  -0.2779612067084074,
                  -0.6304182590398157,
                  0.14371745609468375,
                  -0.26642506070892347,
                  -0.07478287538274175,
                  -0.1760523434641233,
                  0.27813773954331406,
                  0.30600260250474154,
                  0.35871999974087876,
                  0.17230055211830356,
                  0.10311870552602757,
                  -0.23018399366219122,
                  -0.11317011841273177,
                  -0.2251043596035539,
                  -0.238659978909187,
                  0.1194208345596478,
                  -0.1648743286114456,
                  0.03938502660324513,
                  0.1559306550127187,
                  0.3590150588265365,
                  0.27622502081252037,
                  0.1510840452208134,
                  0.3854083048830794,
                  0.10138436775225265,
                  -0.26842255794338965,
                  0.27544869549269924,
                  0.06925298667189224,
                  -0.43569907298599625,
                  -0.16785904502925747,
                  -0.4771682735526488,
                  -0.20489167299737035,
                  -0.32375346327305377,
                  0.20433172198440408,
                  -0.28702525799518475,
                  0.1546874102057461,
                  -0.014848488280278231,
                  0.09639008978386565,
                  -0.2549961772976919,
                  -0.26063054812501946,
                  -0.18304457872909155,
                  0.02266638641598776,
                  0.025193965985973767,
                  -0.09583164541701387,
                  -0.20170950854662323,
                  0.055587382149490654,
                  -0.20338887626024946,
                  0.07282345611171458,
                  -0.17140617904226282,
                  -0.21937229217967544,
                  -0.01653596242849362,
                  0.2301159478585448,
                  0.02911857938186938,
                  0.30107354667957564,
                  0.0474796107194157,
                  -0.21689923099812136,
                  -0.15120265174716255,
                  -0.28057779189294546,
                  -0.18030614001629863,
                  -0.30907258205914273,
                  -0.13292905916430098,
                  0.3149772560894567,
                  -0.13900473249410797,
                  -0.10416624949830937,
                  -0.10569592926847476,
                  -0.06981636866331298,
                  0.21563790560436477,
                  -0.07651831865360031,
                  -0.16779637303652234,
                  -0.20455638839068854,
                  0.202775601058115,
                  0.05906916350480757,
                  -0.1821769779570913,
                  -0.22892255534886838,
                  -0.30455062134258765,
                  -0.028522722064278173,
                  0.08077595352828065,
                  -0.2768969524642772,
                  0.012797798705105359,
                  0.15985457917449566,
                  0.35885722663350766,
                  0.06410496073037242,
                  -0.0911086016960431,
                  -0.25991537169704293,
                  -0.18042743005142303,
                  -0.48349922508155213,
                  -0.4507374775319746,
                  -0.2666785174960503,
                  0.006994754468852904,
                  0.31160657692189897,
                  -0.1462517292871566,
                  0.04770292844338138,
                  -0.23729855908722983,
                  -0.17687668197121992,
                  -0.19710458913568754,
                  0.08229369683520682,
                  -0.18799626702086644,
                  -0.02310928434442676,
                  -0.028470090292230042,
                  -0.19351137424132547,
                  -0.2434335121515243,
                  -0.10672952903804277,
                  -0.16454994269232084,
                  -0.06508714134175732,
                  -0.3717825512143716,
                  -0.05546427725480952,
                  0.13060798703801288,
                  -0.11387433945413787,
                  0.08675510708107477,
                  0.09126300737441927,
                  0.16746684889949698,
                  0.195909665257205,
                  0.1315864489491306,
                  -0.00008348917278250267,
                  -0.4127010240339178,
                  0.04520567790047241,
                  -0.028019478794827336,
                  -0.20528777001912554,
                  -0.05551753593400717,
                  -0.20414179434610838,
                  -0.20384126020623203,
                  -0.4952428968777859,
                  -0.09268149654826714,
                  0.09872871737642734,
                  -0.1222772966265813,
                  -0.3153277849636696,
                  -0.041749634519087635,
                  -0.22938835171548475,
                  -0.21271411122854267,
                  0.21972972869209387,
                  0.2034398250407242,
                  -0.4696400798093784,
                  -0.012218850486768915,
                  0.011354410573505221,
                  -0.052033250680752846,
                  0.17177891658174055,
                  0.11673487258198295,
                  0.020779575345265394,
                  0.03452306209086913,
                  0.020918594120971516,
                  -0.1533520856189022,
                  -0.08095375873243801,
                  -0.17467291170814028,
                  0.06080242002220152,
                  -0.3371608174860171,
                  -0.09939771295378022,
                  -0.32092268268347046,
                  -0.07517022665637298,
                  -0.12053823022947094,
                  -0.36604544724084925,
                  -0.39040313745731237,
                  -0.21223587391954238,
                  -0.22699121573584716,
                  -0.14171069294025504,
                  0.047603023956018266,
                  -0.07580830359661091,
                  -0.018986013760751486,
                  0.24654845617182897,
                  -0.047182528371028785,
                  -0.1934463753325027,
                  -0.10337174501444107,
                  -0.18847911837768497,
                  -0.07139710781531575,
                  -0.1842860702227236,
                  -0.04535858491313105,
                  -0.048673127700919694,
                  -0.34470444448681464,
                  -0.19995721467004218,
                  0.1221717654244598,
                  0.03540836097721987,
                  0.2238158486115775,
                  -0.27475612569680885,
                  -0.34038177953747695,
                  -0.34155460285445804,
                  -0.07346063080447883,
                  -0.17890690419474853,
                  -0.3420214099707125,
                  -0.580982254609741,
                  -0.17816582124670538,
                  -0.2259307066693667,
                  -0.14411791180959396,
                  -0.3524087969160143,
                  0.011418561118493641,
                  -0.23302414309862246,
                  0.09782362836464309,
                  -0.12301463594297748,
                  0.1420785780964559,
                  -0.12594231038689216,
                  -0.27895754596158434,
                  -0.2827501276858392,
                  -0.19809361825843047,
                  -0.2438093863864168,
                  -0.26365279207738024,
                  -0.4291719813824024,
                  -0.2248252280574265,
                  -0.38469194231819176,
                  0.13782025029647718,
                  -0.08146898587039558,
                  -0.2951234711462942,
                  -0.10708782764983789,
                  -0.18494317496560247,
                  -0.13119858965503664,
                  -0.31962249000675313,
                  -0.33945665866363856,
                  -0.21400585331519326,
                  -0.23825943007687528,
                  -0.14900197433709675,
                  -0.022881169471260683,
                  -0.08208373820171348,
                  -0.12088103642320593,
                  -0.04555102286726791,
                  -0.15086840558771508,
                  -0.13966545780295037,
                  0.05019651837185912,
                  -0.2331104531989234,
                  -0.09587740717843775,
                  -0.13595395320654563,
                  -0.38747057054665107,
                  -0.31665880039349753,
                  -0.16246892015042957,
                  -0.5227640893868027,
                  0.2474333332204113,
                  -0.3221032308010324,
                  -0.2055488044806157,
                  -0.015216806625087903,
                  -0.4027836908720454,
                  -0.3376609946329288,
                  -0.05768859645785396,
                  -0.5205992037037512,
                  -0.2383426116377835,
                  -0.06776753073255422,
                  -0.1457566598572469,
                  -0.16488574595527294,
                  -0.1017796583100136,
                  0.24917598748360467,
                  -0.2674136107826124,
                  0.06510955324690966,
                  0.11668108215159066,
                  -0.026287103075204318,
                  0.15432789381632878,
                  -0.23706932487874122,
                  -0.1762658510499731,
                  0.09086835117822613,
                  -0.12004406291899017,
                  -0.15622685381876314,
                  -0.25143626945198816,
                  -0.41370180223817654,
                  0.06641110717806435,
                  -0.04765060202346786,
                  0.009601816387841846,
                  0.10325197635423876,
                  -0.08761056095510393,
                  0.3162315600711858,
                  0.2647785901187495,
                  0.16996747505146553,
                  -0.17683584866016294,
                  -0.3602460613309353,
                  -0.2865266241615037,
                  -0.30483489726169044,
                  -0.21646882948888535,
                  -0.27799693149654936,
                  -0.12559313338014189,
                  0.16760287187650824,
                  0.03515194237997692,
                  -0.25065940183151625,
                  0.061045918631963715,
                  0.033521990266050294,
                  -0.07672221618004965,
                  0.17813492262424635,
                  0.07600081838658668,
                  0.19914030342859237,
                  -0.2335171170275814,
                  0.06719578782979822,
                  -0.44001800796697227,
                  -0.3609488563101984,
                  -0.44540614952834523,
                  -0.08428991719668157,
                  -0.44314341947728586,
                  -0.0856203742916066,
                  -0.09355291047759173,
                  0.10494835571363377,
                  0.13753444144831536,
                  0.15344629974721752,
                  -0.0193490943183465,
                  -0.11115371196009566,
                  -0.1743476209726868,
                  -0.7212235179236844,
                  -0.3836897917670175,
                  0.18512567975667674,
                  0.011066607372883104,
                  -0.1013195764519793,
                  -0.11212165747700435,
                  0.006517260122964481,
                  0.07400219565886254,
                  -0.1675096304562451,
                  -0.03735793209893257,
                  -0.1420167769253382,
                  -0.2116503078337999,
                  -0.0872622160229925,
                  0.23664900754010357,
                  0.07766462731850175,
                  0.034527923889441786,
                  0.2642839105520287,
                  -0.06346805753057247,
                  -0.2949585719693481,
                  -0.027143560413728157,
                  -0.4227661070869088,
                  -0.03521144732609582,
                  0.1416561392103578,
                  -0.03176797942044362,
                  0.19632060711686053,
                  0.4778742164335289,
                  0.39245137653965784,
                  -0.13409520009386605,
                  -0.005727612155452395,
                  0.2899525852593777,
                  0.24937754493067524,
                  -0.21183759457575252,
                  -0.2061920074325812,
                  0.21410447022227294,
                  0.017217824512223055,
                  0.10809156866450385,
                  -0.23238376030964983,
                  -0.07790246571325654,
                  -0.1728571993505441,
                  -0.09334980339359966,
                  -0.20048487942527954,
                  -0.06947335135365841,
                  -0.08371274901352539,
                  -0.22000181043953532,
                  0.13247311896371436,
                  0.35827655391112323,
                  -0.0745988969843548,
                  0.002332866490441156,
                  -0.00471234522633774,
                  -0.04983718042935388,
                  -0.2076566451912583,
                  0.1571234209224913,
                  0.1536778829254877,
                  0.4569008311442828,
                  0.2789453041671416,
                  0.12727300344687187,
                  0.3554208216638201,
                  -0.01528359465548073,
                  0.262564691551735,
                  -0.1450774374965201,
                  0.049634437112494816,
                  0.1977877552897624,
                  -0.14705239808932882,
                  0.22438288463030326,
                  0.20297057131974944,
                  -0.19290977241027252,
                  -0.07949395653757307,
                  0.09206848715781646,
                  -0.02927085537874885,
                  -0.1584178840828152,
                  0.03218859643382387,
                  -0.0905633632942222,
                  -0.19630032027986494,
                  0.16906950129298928,
                  0.17733493383203539,
                  0.1393803288401023,
                  -0.04918713596730298,
                  -0.08761957156060003,
                  -0.020200674292555034,
                  -0.07167501276544444,
                  0.31964828722823985,
                  0.17919967859906474,
                  -0.1007933789974595,
                  -0.01626450032793144,
                  0.24982408302494516,
                  -0.19356737593914622,
                  0.06002701173022943,
                  0.03386264005495458,
                  0.24194376713503485,
                  0.006490482668816872,
                  -0.08924006440579457,
                  -0.207231020084075,
                  -0.19091282181272817,
                  -0.1628510264593621,
                  -0.058892826776445806,
                  -0.24528543297508498,
                  -0.10370515814597181,
                  -0.2026040365938463,
                  -0.0657169244929499,
                  -0.017344418621228007,
                  0.1677056237544822,
                  -0.18594150413709915,
                  0.15192484208779236,
                  -0.09269347769305514,
                  0.06633817430804556,
                  -0.19225280875271786,
                  0.009923068253415535,
                  -0.066095482298055,
                  -0.20884759966627725,
                  0.07838476258469912,
                  0.19205876862952187,
                  0.19796081847838318,
                  -0.029296934196463578,
                  0.018411862185236116,
                  0.17712179353227728,
                  0.1336576991810263,
                  -0.15779375818675564,
                  0.07254353475364676,
                  -0.06986487844772937,
                  -0.19606734005117066,
                  0.19701746932059538,
                  0.1644057732619021
              ],
              [
                  -0.1309595676127584,
                  0.13247067738611829,
                  -0.015864101994129354,
                  0.10809016306698016,
                  -0.22700614960691845,
                  -0.04052914127727392,
                  0.23460630161978957,
                  0.052213492245190896,
                  -0.2006234238195055,
                  -0.01863682513691267,
                  0.09662788321643889,
                  -0.14439732182847786,
                  0.1833770650643959,
                  0.06915651874036352,
                  0.17495657335314213,
                  -0.14598691700953523,
                  -0.0576096449524397,
                  -0.03930458017390226,
                  0.01584520970607739,
                  0.17132653022868838,
                  -0.04878346793593036,
                  -0.08455122168363416,
                  -0.23289863871291772,
                  0.08550315902089667,
                  0.03681803910792181,
                  -0.0903457755621846,
                  -0.19517523807872317,
                  -0.22532914554335115,
                  -0.18994098565569761,
                  -0.14215402925926712,
                  -0.0751782393875251,
                  -0.06408946551326444,
                  0.23542666391973277,
                  -0.019840310690299345,
                  0.006682637661487467,
                  -0.1230609543371683,
                  -0.03966482544246086,
                  0.1432445908099647,
                  -0.13082635953280009,
                  0.03338564988852366,
                  0.18576284800357484,
                  0.2135391376571874,
                  -0.24459394864953837,
                  0.16012058500911522,
                  0.0652684538225813,
                  -0.030484421121317138,
                  -0.24455860485645914,
                  0.18308343521863188,
                  0.08440191219089607,
                  0.12579585115988293,
                  0.1342933754367078,
                  0.0691830720366477,
                  0.22805747854311598,
                  0.17005905510501462,
                  -0.07661321873797877,
                  -0.23326340148363656,
                  0.07796031044365825,
                  0.09323787707346809,
                  0.03472576140586214,
                  0.06449282049967564,
                  -0.030835479019120173,
                  0.2081348092779188,
                  -0.04660159425264867,
                  -0.03832383130215775,
                  0.11404519318284409,
                  -0.044557270312557455,
                  -0.08936650874454345,
                  -0.046314274473654195,
                  -0.24076466160244905,
                  -0.05291026845252124,
                  0.08850571918054524,
                  0.07598080276092008,
                  -0.004045319598246782,
                  0.08545567806799381,
                  0.22541228324710885,
                  0.13620493023200078,
                  -0.20679991430446956,
                  -0.02940410146278816,
                  0.2405427101591703,
                  0.16725073117737443,
                  -0.14023078227747265,
                  0.03877813763823336,
                  0.22011252226415,
                  -0.21342853041396515,
                  0.10262962209551985,
                  0.02618129070225861,
                  0.10696629042664507,
                  -0.04593135772482745,
                  -0.12367405942055353,
                  -0.03556288416282986,
                  0.11990194816367977,
                  -0.1458194594554672,
                  -0.1361824970723231,
                  -0.11008138993813844,
                  -0.049732145167463084,
                  0.26471612736471756,
                  0.1991602653207791,
                  0.1399127077893052,
                  -0.10523736400291424,
                  0.01585218082310313,
                  0.25316015201480113,
                  -0.019716876932672697,
                  -0.14314682894001307,
                  -0.09608052101741357,
                  0.033200120877350005,
                  0.036195761336211614,
                  -0.10373024497744966,
                  0.10752704644860664,
                  0.005749085090044454,
                  -0.1880962568651618,
                  -0.21934840288320417,
                  0.19878923654742153,
                  -0.008294786902123485,
                  -0.04096067207863208,
                  -0.20351110533010666,
                  -0.21605434906531823,
                  0.20414165951457483,
                  -0.11183103523274981,
                  -0.22434857456303547,
                  -0.1598888867287417,
                  0.12494865882479837,
                  0.04893646518455847,
                  -0.04463414010972401,
                  0.15221466341472162,
                  0.2763481588969027,
                  0.023299796664618046,
                  0.25126597363500924,
                  0.0027320657239987365,
                  0.20941087734536454,
                  0.3781230174205669,
                  0.18700808773327235,
                  0.019310430316798112,
                  0.05331300723647637,
                  -0.015963516294620252,
                  0.059079766296414024,
                  0.23534092588316816,
                  0.16913895808152976,
                  -0.017983831580341857,
                  -0.12327645182740254,
                  0.17715816140021606,
                  -0.038990976728062954,
                  -0.242565887653434,
                  -0.030168258565788576,
                  0.04480807464077975,
                  0.09443720157221881,
                  0.21666496326969858,
                  0.05160383348893107,
                  0.12613160532685347,
                  -0.02620011685933246,
                  0.10063108413720122,
                  0.2559885011383447,
                  -0.10573375592167986,
                  -0.13110525463814016,
                  -0.2678323870981264,
                  0.04185960809344254,
                  0.47854656401460827,
                  0.39147398365423414,
                  0.6359179243068768,
                  0.4749498546094172,
                  0.38350526406434,
                  0.20821456860236257,
                  0.005468225063204935,
                  0.16628694602332625,
                  0.03231859118089657,
                  -0.04182639620246413,
                  -0.021916285234330084,
                  0.19953856433267178,
                  0.03687812860886722,
                  0.16438339033245497,
                  0.12979844318751477,
                  -0.01528414343225487,
                  0.22143755722355374,
                  0.24006975629092778,
                  0.2609510512329261,
                  0.420164863304232,
                  0.05978627453421013,
                  0.42257105041363346,
                  0.42116122239535975,
                  0.02294568770483426,
                  0.05878339475808278,
                  -0.30889815088238537,
                  -0.2576011488650104,
                  -0.34023201046843116,
                  -0.2251054710892793,
                  -0.43957542553191564,
                  -0.14220117623312967,
                  -0.16049715091672462,
                  0.29648389724230384,
                  0.1330524461509335,
                  0.18145271888817113,
                  0.34754444190747796,
                  0.5834479529701913,
                  0.07526055195715971,
                  -0.08796636636006847,
                  0.16243073024935825,
                  -0.1270333641568438,
                  -0.12517805054272535,
                  0.16342052669625842,
                  -0.07660188735662651,
                  -0.1575135066874016,
                  0.019464342809741103,
                  -0.10379827541612907,
                  0.15493612093908896,
                  0.24981950255752625,
                  0.1529035872826226,
                  -0.03517526575240061,
                  -0.2131725233690956,
                  0.057841626154732775,
                  -0.19159731613004155,
                  -0.15396015176165015,
                  -0.2551335267898315,
                  -0.6286130718805345,
                  -0.45777390451321875,
                  -0.05370230655364188,
                  -0.3443208322255803,
                  0.0963918626121817,
                  0.15810019102163908,
                  -0.13148384051856013,
                  0.21417599503854154,
                  0.5104434479504097,
                  0.22370849220193118,
                  0.030661546722147586,
                  -0.07210294106395443,
                  -0.01596180554206539,
                  -0.22140442304344432,
                  0.09603269284425969,
                  0.0372109351135079,
                  -0.017789122758980813,
                  -0.17369731264605198,
                  -0.014838784209362287,
                  -0.14771176386155926,
                  -0.019177664357114294,
                  -0.09380650536306008,
                  0.0011807447756833145,
                  -0.017383106121743094,
                  0.1233308902021614,
                  -0.05730208012530761,
                  -0.1519985081872422,
                  -0.38144156735485435,
                  -0.4307505649750291,
                  -0.12176557537785442,
                  -0.24772798394330503,
                  -0.33582654004741735,
                  0.20796124321097495,
                  0.07018289896524217,
                  -0.19862339366279438,
                  0.21208740966590156,
                  0.3325693434562226,
                  0.08498635618829024,
                  0.3036026837202753,
                  0.10553490755863257,
                  0.012006469353085142,
                  0.1589703890118572,
                  -0.04728610737845688,
                  0.16641748339895812,
                  -0.2039719168607695,
                  0.16934687107082436,
                  0.21414924418605902,
                  0.05263907453377372,
                  0.16552746722098904,
                  -0.23938087560006943,
                  0.28744207615153927,
                  -0.3679366744777515,
                  0.15435411843192698,
                  -0.29960486549658677,
                  -0.3653968170875028,
                  -0.5406912325533351,
                  -0.5337084407606408,
                  0.1493455898873817,
                  -0.19386181657702214,
                  0.36189161511612616,
                  0.0742512622555638,
                  0.009578119639941183,
                  0.24160289802860693,
                  0.09557942544308032,
                  0.07772664229393551,
                  0.1973034797615546,
                  0.05612012782657603,
                  -0.18680570175517824,
                  -0.17226244076735447,
                  0.09772112382386443,
                  -0.17054326760420674,
                  0.15616813704449656,
                  0.021542137102712324,
                  -0.02298068811781765,
                  -0.3458341634774985,
                  -0.1726702851109767,
                  0.09130534961611692,
                  -0.3569007532633165,
                  0.1426428441263483,
                  -0.29985418884622894,
                  -0.12087909361313803,
                  -0.016049323531329405,
                  -0.2576712465073241,
                  -0.1687500482401867,
                  -0.0819926619554336,
                  -0.18312972160423244,
                  -0.08540749287904535,
                  0.1914972751549076,
                  -0.27228517036183014,
                  -0.2477882060417111,
                  0.0527571678662428,
                  -0.28221032411177527,
                  0.15342341585197034,
                  0.051545588398706925,
                  -0.1619811598625613,
                  0.11279502383016068,
                  -0.03712473050064626,
                  0.19134827103429228,
                  -0.13709843420786674,
                  0.11481667102556638,
                  0.14339134734652262,
                  -0.2458801353543939,
                  -0.1711278930237508,
                  -0.30374305233793936,
                  -0.08428576233929004,
                  -0.18260772641542047,
                  -0.3638334989923097,
                  -0.16303085405929063,
                  -0.19150609446434963,
                  0.12317011537260229,
                  -0.42703491422527945,
                  -0.1498589654367972,
                  -0.2820835524421773,
                  -0.044302312552875034,
                  -0.46664349770058206,
                  -0.17254625393370304,
                  -0.2944388985018232,
                  -0.48223416420859544,
                  -0.23196661435698357,
                  -0.05066134272277444,
                  0.18555945102747695,
                  0.3078268153224625,
                  -0.21368134209809234,
                  -0.12102222681604656,
                  0.06973601273933806,
                  0.012361158432746655,
                  0.16965280804164126,
                  -0.07481210469815729,
                  -0.22330940480504655,
                  -0.2133622667920235,
                  -0.43631336685936084,
                  -0.22441259487180215,
                  -0.0380255065254476,
                  -0.32894377164661637,
                  -0.3671822424975871,
                  -0.04660905502107877,
                  0.10782219646805122,
                  0.5681916323172763,
                  0.47990107247238156,
                  0.03448527026817576,
                  -0.03332527873176163,
                  -0.27025889247185586,
                  -0.47047430365324694,
                  -0.3501923112231239,
                  -0.17210459009419615,
                  -0.0739681267197697,
                  -0.4476178627265935,
                  -0.35833798275892265,
                  0.17081459580035174,
                  0.27309054334529925,
                  -0.15086186748678979,
                  -0.047094224162442994,
                  -0.10512955848868298,
                  -0.058808669376853584,
                  0.013141775298424538,
                  0.09053576337150052,
                  0.13819326477460908,
                  -0.23797855006346805,
                  -0.08851390406499378,
                  -0.22196088743319067,
                  0.028588208990812637,
                  0.32584713016655165,
                  0.01355887948280103,
                  -0.0016192985439205474,
                  0.2774466712653021,
                  0.6464594726862275,
                  0.26683254922231486,
                  0.08921265821997047,
                  -0.07410842820198985,
                  -0.2480258116175155,
                  -0.2353076922403356,
                  -0.028298157591917682,
                  0.15557041117230944,
                  -0.0540468898295454,
                  -0.18287693667404709,
                  0.10653760782008455,
                  0.17605080326531783,
                  0.035680698882322136,
                  -0.15756763366972573,
                  0.10368332241555107,
                  -0.11259520103627303,
                  0.05014261732901516,
                  -0.24970348286575708,
                  -0.11892915042830345,
                  -0.023794294285718984,
                  -0.5017325896932248,
                  -0.021420928593570088,
                  -0.02692270303831391,
                  -0.09092612037063438,
                  0.34058725874175655,
                  0.4220280240312623,
                  0.48393930325383305,
                  0.25376683161736074,
                  0.47344355146988726,
                  0.5762619223015503,
                  0.41235491188623125,
                  0.15955634747792125,
                  0.04873523921258345,
                  -0.1821291904457046,
                  -0.18197051355563748,
                  0.01565951180949594,
                  -0.05774778040808539,
                  0.043340188402880404,
                  0.0326029820884327,
                  0.23486496381063204,
                  -0.0460184054096101,
                  0.2534425369941249,
                  -0.031741792394151896,
                  0.041317999006845525,
                  -0.21324626322843776,
                  -0.10041541978675488,
                  0.1074966290097348,
                  -0.1401592268652459,
                  -0.22558701640184237,
                  0.13903331105880778,
                  -0.039301726893927635,
                  0.1612814998909875,
                  0.10535064027336805,
                  -0.009593022916998904,
                  0.1288290499724655,
                  0.26455140509394287,
                  0.5010378705985469,
                  0.40273633595919345,
                  0.16039647333269982,
                  0.18681784698783938,
                  0.15946384284419124,
                  -0.28074880006659636,
                  -0.4074532395011826,
                  0.1690437380648302,
                  0.01937058799674039,
                  0.05405310990954109,
                  0.012073217920154816,
                  0.15775342628508823,
                  0.15281340771597451,
                  0.11761548247361395,
                  0.09424372272687014,
                  -0.08048747689023812,
                  0.23371053266298747,
                  0.19546616068021622,
                  0.18910237314594885,
                  -0.30856490488099936,
                  -0.1807109702908798,
                  0.34659098403322963,
                  0.21929144134825812,
                  0.04047979743355974,
                  0.20601157846642779,
                  0.21310269411191132,
                  0.0702768212043982,
                  -0.10792541998095757,
                  -0.07422634885003342,
                  0.3190647900029174,
                  0.49360561000127656,
                  0.24928054884949705,
                  -0.131967744255329,
                  -0.08817303538077126,
                  0.11746768705743206,
                  -0.10779756575289838,
                  -0.0800671289920548,
                  0.07015235559501733,
                  -0.07075271917108723,
                  0.10954784985106858,
                  0.13325027830918848,
                  -0.19979665968828542,
                  -0.22662211938292695,
                  0.1690901520356504,
                  0.0967852725087206,
                  0.17600982787151917,
                  0.261365487562469,
                  -0.07276346044060121,
                  0.16804061248859992,
                  0.2866473946657284,
                  0.0011530634027694746,
                  0.13508707144167403,
                  -0.23241252898680617,
                  0.23356200537331318,
                  0.14691456402693565,
                  0.18697186957090872,
                  0.17055694460537177,
                  0.21084978070999555,
                  0.148877288473853,
                  0.1485401584972153,
                  -0.08319974686098425,
                  -0.09019176658218976,
                  -0.06324839293249057,
                  0.14188748215634028,
                  0.08719904056914608,
                  0.10106267736913939,
                  0.22956345239179962,
                  0.016825077533187544,
                  0.35643775481315093,
                  -0.08614103057549258,
                  -0.13332728867481072,
                  -0.14590302784878884,
                  -0.23675954063744697,
                  -0.0714071048254019,
                  -0.02672814479928316,
                  0.15048666030404276,
                  0.17810660845541035,
                  0.16724991429639088,
                  0.32765638425847504,
                  0.002194305335815941,
                  -0.09019791121316784,
                  -0.01717940865305266,
                  -0.061087938768122074,
                  0.32661634078200147,
                  0.05740533950182001,
                  0.023045514371346797,
                  0.04455106341834143,
                  -0.2041094149149409,
                  0.0672092906883899,
                  -0.04990799789754184,
                  0.0038415809712020817,
                  0.01571185715380612,
                  -0.06635322239392157,
                  -0.007984074144781746,
                  0.35919727545518254,
                  0.21636676349456613,
                  0.2588627657392765,
                  0.04400383112015195,
                  0.2370269929304822,
                  -0.15327570693463785,
                  0.17917425161068046,
                  0.2440060124809203,
                  -0.07703856159167176,
                  0.21985700671137512,
                  0.21456319314434674,
                  0.43520987035968234,
                  0.06501020991732502,
                  0.31056201305577413,
                  0.2207613600680078,
                  0.21943488716415163,
                  0.09462025535711664,
                  0.34590460834303016,
                  0.49348713820852713,
                  0.00051351897338257,
                  0.06818621180792259,
                  0.33419352592480706,
                  -0.16401742045200526,
                  0.16281897768819645,
                  0.20738997384170718,
                  -0.08371101662715041,
                  -0.03911437114301511,
                  0.2993421287408745,
                  0.2997196028671236,
                  0.171159819690462,
                  0.23770763203764528,
                  -0.1153646579899708,
                  -0.23545567948803447,
                  -0.008661770186659708,
                  -0.22419545349555836,
                  -0.0744434929895726,
                  -0.06717601477369894,
                  0.02996000430443882,
                  0.10485702118615647,
                  0.1991706236884761,
                  0.2074391635244739,
                  0.33186073551743134,
                  0.301771285514141,
                  0.3535164720146065,
                  -0.03340143738059892,
                  0.26146969125738884,
                  -0.11588496865679533,
                  -0.0011319574801450089,
                  -0.10629233715721902,
                  0.14245992259820792,
                  0.31372989381704913,
                  0.28711913491997726,
                  0.13093764194204782,
                  0.3154888273294125,
                  0.14735006270630907,
                  0.43402427187449705,
                  -0.05138001714916016,
                  0.16634348078042813,
                  0.020565848530690167,
                  0.058446037273016296,
                  0.19074084817033962,
                  -0.1384328944799167,
                  0.17852628279116667,
                  0.14289221576708158,
                  -0.19821252570752967,
                  0.24102596023974504,
                  0.24077603475302645,
                  0.19573609956897722,
                  0.2397748000749663,
                  0.5639531129375344,
                  0.20018537656311058,
                  0.2345972512957703,
                  0.2455561557327283,
                  0.28844593852798256,
                  0.2925839747467278,
                  -0.05664377538062361,
                  0.0019872787039102837,
                  0.20714299866191122,
                  0.12142025814502468,
                  0.2715564672250455,
                  0.4839657598595875,
                  0.1505406287989318,
                  -0.10503946401251099,
                  0.36598874513521434,
                  -0.06695613564908012,
                  -0.2308942082324287,
                  -0.3568982443102387,
                  0.14929187578298617,
                  0.21762326340712393,
                  -0.10946154430162933,
                  -0.13277002658903114,
                  -0.06461446971963417,
                  -0.20383402026536973,
                  -0.007749074249142623,
                  0.08014186189784811,
                  0.07451734848514686,
                  0.4445357007242562,
                  0.47934617857893047,
                  0.0660512997736838,
                  0.2749750631268121,
                  -0.1504269943474452,
                  0.3001062725249184,
                  0.17364042481270017,
                  0.4842521751296225,
                  0.13636725620276197,
                  0.20041062877201093,
                  0.2145131797694986,
                  0.19727638038483267,
                  0.1882864786883803,
                  0.1751843658191544,
                  0.30715078532983225,
                  0.43850462844659116,
                  -0.05441932096242266,
                  0.2516683302738799,
                  -0.058067229355397355,
                  0.06121252033361143,
                  0.13980627203076254,
                  -0.11374816488250838,
                  -0.013347448166746712,
                  -0.20592771971556234,
                  0.1986381578911219,
                  0.11724734558850565,
                  0.2515470559291548,
                  -0.23205283328445048,
                  -0.09368462173522636,
                  -0.2019152646101094,
                  0.10046296611740026,
                  0.12175757988278561,
                  0.23160726355665334,
                  -0.008873710323576775,
                  0.04456110460450193,
                  0.2152908456622623,
                  -0.05020892750214051,
                  0.4210780095783702,
                  0.26668075486093956,
                  0.4233678650617883,
                  0.4002820674347049,
                  0.1874932374233527,
                  0.2657656132553636,
                  -0.06764874470087491,
                  -0.16528499837444305,
                  0.14423463299737377,
                  -0.17810936460924418,
                  -0.19577320476423843,
                  0.20363712716594992,
                  0.23720347889123983,
                  -0.012297725722195785,
                  -0.029377702576740772,
                  -0.021317899804377153,
                  0.16920796905872193,
                  -0.07909273796142309,
                  -0.4102268748978661,
                  -0.2386548787574357,
                  -0.33891508468584797,
                  -0.1501365093767162,
                  0.271239287552795,
                  -0.03971192045192772,
                  0.13348481480973648,
                  -0.05763659387718448,
                  0.29524174877752674,
                  0.08120683410984271,
                  -0.09377549550220249,
                  0.11131181286550215,
                  0.07967560707778547,
                  -0.11610231255895384,
                  0.08281860694520467,
                  -0.26478280670811244,
                  -0.04327941981619555,
                  -0.16964977904023879,
                  -0.10313781051883494,
                  0.03309990409815327,
                  0.1605745928284693,
                  -0.08506068984467827,
                  0.19785523959632845,
                  -0.23713805289714351,
                  0.13253063708896495,
                  0.20769487279802615,
                  0.18504390812689814,
                  0.14449592601323677,
                  -0.1944931747625431,
                  -0.37574132559501017,
                  -0.27226911501657436,
                  -0.3426695585648253,
                  -0.07358287225949589,
                  -0.26668908907136263,
                  -0.10769349899125621,
                  -0.3259292025825035,
                  -0.08784904975719567,
                  0.05286059299788362,
                  -0.07382627813578642,
                  0.03216550502923894,
                  -0.11782719897421293,
                  -0.3564116758372613,
                  -0.1351837774314989,
                  -0.11628634958572745,
                  -0.17386209354872187,
                  0.20674456460006618,
                  0.020792679573531505,
                  -0.09754915305014882,
                  -0.2213426156960641,
                  -0.07437614496664915,
                  -0.18394652514234833,
                  0.2239709267689366,
                  0.14194781235764375,
                  0.17604743692555036,
                  -0.04187867231538989,
                  -0.1606216594902814,
                  -0.021519284845349942,
                  0.06596624362010411,
                  -0.16825905313490652,
                  -0.403633365098828,
                  -0.34352435726871283,
                  -0.31471515688038326,
                  -0.19681796585841846,
                  -0.2904081305588035,
                  -0.21887795756212342,
                  -0.5057167237264043,
                  -0.24043420975525867,
                  -0.3644972175192561,
                  -0.40526123131440706,
                  -0.27654150674187,
                  -0.2963724437443031,
                  -0.43256796005382486,
                  -0.15760905412919876,
                  -0.04970861878666353,
                  0.23794900464824725,
                  0.14016331964452267,
                  0.11425728733010312,
                  -0.04801356168022397,
                  0.1274104183917032,
                  0.20851137036825496,
                  -0.003075579744270196,
                  0.1782096213581812,
                  0.11428064848589714,
                  0.060304795193710174,
                  -0.16938064503577846,
                  -0.14149040674978292,
                  -0.15592797178414802,
                  -0.1943179830147861,
                  0.12147462133378183,
                  0.04854521995293717,
                  0.23321851686659756,
                  -0.07558276604831982,
                  -0.05332859269713388,
                  -0.14008353780466995,
                  0.030972326922468374,
                  0.23848195943541756,
                  -0.2354927075991916,
                  -0.031974419733047356,
                  -0.08062391061482886,
                  -0.1741442441143829,
                  0.020757602525590325,
                  -0.03463621695138898,
                  0.09967677914595031,
                  0.08352818746318114,
                  -0.10914377459226154,
                  -0.06656511146761712,
                  -0.04793104843611995
              ],
              [
                  0.2430311874635096,
                  -0.23608960731242634,
                  0.011391430777349054,
                  0.23090252022916502,
                  -0.01333319890397966,
                  0.040349489947663186,
                  -0.01838817562252637,
                  0.14234400793453372,
                  -0.1767587896801951,
                  0.23541194691740774,
                  -0.13187403196629754,
                  0.15698832753360992,
                  0.15353212782336823,
                  0.10222683333158566,
                  0.07550834676987916,
                  -0.06638652892720755,
                  0.23188311172346532,
                  0.009755026486726881,
                  -0.12534539085255203,
                  -0.1141763332645147,
                  -0.08512871381921627,
                  -0.10574887128683508,
                  0.0713931157341936,
                  -0.17493290937848083,
                  -0.22708055158837748,
                  -0.09214207599689472,
                  -0.24446837004871125,
                  -0.16277262599128162,
                  -0.07223519927361521,
                  0.12775896274550547,
                  0.24824156739092829,
                  -0.09646228306839699,
                  -0.032565959068842965,
                  -0.11789754721665924,
                  -0.0039748956856027196,
                  0.05523780467659275,
                  0.17709589230478787,
                  0.05991816659002373,
                  0.14026073412101653,
                  0.08286507725542075,
                  0.009826207543115358,
                  -0.11215583129641903,
                  0.030398336726864077,
                  0.2248178381175456,
                  0.10607002148731233,
                  -0.27144506959494474,
                  -0.20145327018874615,
                  -0.06545456643821802,
                  -0.09211611662178577,
                  -0.11918345001825598,
                  -0.08514912401254039,
                  0.16224110033173728,
                  0.24716612541779215,
                  0.21206806617707086,
                  -0.18382548075803085,
                  0.059056539853606926,
                  -0.08984917818259386,
                  -0.03955020662071096,
                  -0.0359293614402062,
                  0.0437633274674992,
                  0.22346135063163894,
                  -0.11155336209779514,
                  -0.16884661136921086,
                  -0.04198311882097827,
                  -0.23328075997979608,
                  0.13078962617033488,
                  -0.23197108096245536,
                  0.05559018781382794,
                  0.01159708933210646,
                  0.1796774997347428,
                  0.12379771007624436,
                  0.2801564089644861,
                  0.024964355722935008,
                  -0.05850239736539415,
                  -0.2147194283951876,
                  0.1588860162439981,
                  -0.23259123846697946,
                  0.032522806004067324,
                  -0.30668509187726223,
                  -0.17734238229706029,
                  0.16568964107965922,
                  0.03717123434343817,
                  -0.15205374497325896,
                  0.10330760949082796,
                  -0.08046801014452787,
                  0.22459906731688284,
                  0.17356094646576758,
                  -0.037713269157339996,
                  0.19455369324306143,
                  -0.05302362886555026,
                  0.05437518795076979,
                  0.05501318867279677,
                  0.10943625707483579,
                  -0.19323611113217123,
                  -0.061765544675536146,
                  -0.000015948551832215127,
                  0.10045726669594575,
                  0.5913717576066476,
                  0.7207424212348585,
                  0.21341498982846982,
                  0.18215577822098428,
                  0.22718458300173183,
                  -0.10493254846493134,
                  -0.37492355206978467,
                  -0.4831993163587476,
                  -0.39983200313328665,
                  -0.25212265627531943,
                  -0.16143450088148775,
                  0.10072554916258844,
                  0.1401790809984699,
                  -0.03431353537329422,
                  -0.21613301743277935,
                  0.0982114563048152,
                  -0.1085608649399229,
                  -0.05638658140299699,
                  -0.11252948000728837,
                  0.07553205540901181,
                  0.14112770864641208,
                  0.3420959338848601,
                  0.12133798642489176,
                  0.2270960823505758,
                  0.4021843481589219,
                  0.4879903243754499,
                  0.24166919499904602,
                  0.38978504143560205,
                  0.5677071225669035,
                  0.08502975452181413,
                  0.1272047784425691,
                  -0.0031531765360713173,
                  0.029533055247260014,
                  -0.10006077835861474,
                  -0.26438351483055345,
                  -0.18406750281363668,
                  -0.19658658209614374,
                  -0.5394379522778749,
                  -0.20746198292013357,
                  -0.13598596778364644,
                  0.011080092181237889,
                  0.24858504083288638,
                  -0.21855775573053593,
                  -0.20132536097818132,
                  -0.10551206055749363,
                  0.15173512372870523,
                  -0.08136620593673802,
                  0.014402940354376514,
                  0.014176032848085851,
                  -0.10436244897580076,
                  0.007448425452564654,
                  0.4313363664362976,
                  0.41309623590011635,
                  0.5833191582667977,
